<?xml version="1.0" encoding="ISO-8859-1"?>
<!-- This network was created in GeNIe Academic, which can be used for educational and research purposes only -->
<smile version="1.0" id="Network1" numsamples="10000" discsamples="10000">
	<nodes>
		<cpt id="Regiao">
			<state id="RS" />
			<state id="SC" />
			<state id="PR" />
			<probabilities>0.381422505 0.232776008 0.385801486</probabilities>
		</cpt>
		<cpt id="Sexo">
			<state id="Masculino" />
			<state id="Feminino" />
			<probabilities>0.48832271 0.511677282</probabilities>
		</cpt>
		<cpt id="Faixa_Etaria">
			<state id="Jovem" />
			<state id="Adulto" />
			<state id="Idoso" />
			<probabilities>0.01570314062812562 0.4218843768753751 0.5624124824964993</probabilities>
		</cpt>
		<cpt id="Modalidade_Terapeutica">
			<state id="Cirurgia" />
			<state id="Quimioterapia" />
			<state id="Radioterapia" />
			<probabilities>0.057165605 0.712526539 0.230307856</probabilities>
		</cpt>
		<cpt id="Tempo_Tratamento">
			<state id="dias_1_a_10" />
			<state id="dias_11_a_20" />
			<state id="dias_21_a_30" />
			<state id="dias_31_a_40" />
			<state id="dias_41_a_50" />
			<state id="dias_51_a_60" />
			<state id="dias_61_a_90" />
			<state id="dias_91_a_120" />
			<state id="dias_121_a_300" />
			<state id="dias_301_a_365" />
			<state id="dias_366_a_730" />
			<parents>Sexo Modalidade_Terapeutica Regiao Faixa_Etaria</parents>
			<probabilities>0.25 0 0.25 0.25 0 0.25 0 0 0 0 0 0.104477612 0.08955223900000001 0.067164179 0.082089552 0.08955223900000001 0.082089552 0.134328358 0.111940299 0.21641791 0.014925373 0.007462687 0.05730659 0.063037249 0.103151862 0.06017192 0.065902579 0.05730659 0.171919771 0.126074499 0.280802292 0.011461318 0.00286533 0.6 0.4 0 0 0 0 0 0 0 0 0 0.055555556 0.148148148 0.037037037 0.018518519 0.037037037 0.037037037 0.166666667 0.185185185 0.296296296 0.018518519 0 0.072072072 0.081081081 0.036036036 0.009009009 0.054054054 0.036036036 0.216216216 0.126126126 0.342342342 0.018018018 0.009009009 0.166666667 0.166666667 0 0.333333333 0.16666667 0 0 0.16666667 0 0 0 0.05 0.07000000000000001 0.08 0.08 0.09 0.08 0.19 0.04 0.31 0.01 0 0.0366972477 0.0412844037 0.0642201835 0.08256880730000001 0.1100917431 0.1009174312 0.1880733945 0.1100917431 0.2614678899 0 0.004587156 0.52293578 0.211009174 0.091743119 0.027522936 0.055045872 0.027522936 0.018348624 0.018348624 0.018348624 0.009174312 0 0.122245913 0.113006397 0.125088842 0.123667377 0.102345416 0.07533759800000001 0.145700071 0.07533759800000001 0.10732054 0.006396588 0.00355366 0.0729023384 0.09387895459999999 0.1093535076 0.1045392022 0.1103851444 0.0732462173 0.1877579092 0.0997248968 0.1337689133 0.0099724897 0.0044704264 0.5820895521084875 0.1343283577311205 0.05970149297170863 0.05970149297170863 0 0.04477611924370684 0.04477611924370684 0 0.07462686572956116 0 2.220446e-16 0.09942005 0.111019056 0.104391052 0.114333057 0.097763049 0.069594035 0.183098592 0.072908036 0.123446562 0.023198012 0.0008285 0.0627993614 0.0830228845 0.1027142097 0.1069717935 0.1027142097 0.0872804683 0.1687067589 0.1101649814 0.1543374135 0.0175625333 0.0037253858 0.541284404 0.256880734 0.04587156 0.055045872 0.027522936 0.009174312 0.027522936 0.027522936 0.009174312 0 0 0.1129683 0.148126801 0.177521614 0.125072046 0.111815562 0.088760807 0.117002882 0.055907781 0.055907781 0.004034582 0.002881844 0.0728096677 0.1441087613 0.1770392749 0.1244712991 0.0993957704 0.0788519637 0.1425981873 0.06888217520000001 0.08459214499999999 0.0051359517 0.0021148036 0.041666667 0.041666667 0.125 0 0.125 0.041666667 0.083333333 0.041666667 0.5 0 0 0.049689441 0.059006211 0.08229813699999999 0.090062112 0.079192547 0.080745342 0.206521739 0.124223602 0.217391304 0.007763975 0.00310559 0.02198241408345209 0.02517985612002484 0.4116706635756489 0.0403677058484217 0.0567545963131952 0.04636290963965748 0.1031175059528527 0.07474020779625509 0.1258992805454479 0.09192645882484803 0.001998401300195907 0.1 0 0 0.1 0.1 0.1 0.1 0.2 0.3 0 0 0.032544379 0.041420118 0.071005917 0.035502959 0.07692307700000001 0.073964497 0.224852071 0.133136095 0.289940828 0.01183432 0.00887574 0.024429967 0.043973941 0.037459283 0.042345277 0.045602606 0.066775244 0.214983713 0.167752443 0.332247557 0.016286645 0.008143322 0 0 0.166666667 0.083333333 0 0.083333333 0.16666667 0.25 0.25 0 0 0.046325879 0.07507987200000001 0.09584664499999999 0.094249201 0.08945686899999999 0.09584664499999999 0.204472843 0.107028754 0.177316294 0.011182109 0.003194888 0.045540797 0.045540797 0.093927894 0.074003795 0.086337761 0.063567362 0.246679317 0.143263757 0.186907021 0.008538899000000001 0.0056926 0 0.166666667 0 0.16666667 0.16666667 0 0 0 0.5 0 0 0.07582938 0.056872038 0.156398104 0.113744076 0.042654028 0.047393365 0.17535545 0.090047393 0.232227488 0.004739336 0.004739336 0.06472491900000001 0.077669903 0.080906149 0.061488673 0.067961165 0.045307443 0.239482201 0.09061488700000001 0.25566343 0.012944984 0.003236246 0 0.33333333 0 0.66666667 0 0 0 0 0 0 0 0.03703704 0.055555556 0.083333333 0.157407407 0.055555556 0.083333333 0.212962963 0.138888889 0.166666667 0 0.009259259000000001 0.054347826 0.054347826 0.065217391 0.108695652 0.152173913 0.076086957 0.173913043 0.108695652 0.184782609 0.02173913 0 0 0 0 0.25 0.25 0 0.25 0 0.25 0 0 0.06521739 0.076086957 0.141304348 0.08695652199999999 0.114130435 0.076086957 0.184782609 0.08695652199999999 0.163043478 0.005434783 0 0.03125 0.046875 0.0703125 0.08984375 0.12109375 0.05859375 0.1953125 0.12109375 0.25390625 0.00390625 0.0078125 0.42857143 0.20779221 0.09090909 0.07792208 0.02597403 0.05194805 0.05194805 0.02597403 0.03896104 0 0 0.0771019 0.08988764 0.115459124 0.120883379 0.113134444 0.08795040699999999 0.179000387 0.094537001 0.111584657 0.006586594 0.003874467 0.069610778 0.093937126 0.110404192 0.102170659 0.115643713 0.10741018 0.172155689 0.093937126 0.125748503 0.005613772 0.003368263 0.47826087 0.02173913 0.19565217 0.10869565 0.06521739 0.02173913 0.02173913 0.06521739 0.02173913 0 0 0.05653333 0.0672 0.105066667 0.115733333 0.1344 0.0944 0.184533333 0.09279999999999999 0.133333333 0.014933333 0.001066667 0.051779935 0.075080906 0.102265372 0.139805825 0.118446602 0.082847896 0.185113269 0.09579288 0.137216828 0.009061489000000001 0.002588997 0.47826087 0.02173913 0.19565217 0.10869565 0.06521739 0.02173913 0.02173913 0.06521739 0.02173913 0 0 0.05653333 0.0672 0.105066667 0.115733333 0.1344 0.0944 0.184533333 0.09279999999999999 0.133333333 0.014933333 0.001066667 0.051779935 0.075080906 0.102265372 0.139805825 0.118446602 0.082847896 0.185113269 0.09579288 0.137216828 0.009061489000000001 0.002588997 0.07142857 0.14285714 0.07142857 0.07142857 0 0.07142857 0.21428571 0.07142857 0.28571429 0 0 0.05977584 0.063511831 0.069738481 0.09464508100000001 0.09464508100000001 0.07098381099999999 0.196762142 0.109589041 0.221668742 0.01618929 0.00249066 0.033805889 0.052344602 0.081788441 0.07524536499999999 0.086150491 0.086150491 0.203925845 0.116684842 0.235550709 0.017448201 0.010905125 0 0 0.25 0 0 0 0.5 0.125 0.125 0 0 0.02696078 0.049019608 0.044117647 0.056372549 0.073529412 0.085784314 0.18872549 0.132352941 0.289215686 0.039215686 0.014705882 0.017369727 0.037220844 0.049627792 0.05955335 0.07692307700000001 0.07444168700000001 0.205955335 0.161290323 0.297766749 0.009925557999999999 0.009925557999999999 0.125 0.0625 0 0.25 0.125 0.0625 0 0.125 0.1875 0.0625 0 0.05942029 0.062318841 0.08985507199999999 0.08840579699999999 0.104347826 0.09710144900000001 0.205797101 0.104347826 0.173913043 0.007246377 0.007246377 0.043895748 0.049382716 0.08093278499999999 0.09739369 0.117969822 0.087791495 0.21399177 0.131687243 0.160493827 0.010973937 0.005486968</probabilities>
		</cpt>
	</nodes>
	<extensions>
		<genie version="1.0" app="GeNIe 2.5.5320.0 ACADEMIC" name="Network1">
			<node id="Sexo">
				<name>Sexo</name>
				<interior color="e5f6f7" />
				<outline color="000080" />
				<font color="000000" name="Arial" size="8" />
				<position>60 191 167 264</position>
				<barchart active="true" width="128" height="64" />
			</node>
			<node id="Regiao">
				<name>Regiao</name>
				<interior color="e5f6f7" />
				<outline color="000080" />
				<font color="000000" name="Arial" size="8" />
				<position>262 85 308 113</position>
				<barchart active="true" width="133" height="74" />
			</node>
			<node id="Faixa_Etaria">
				<name>Faixa_Etaria</name>
				<interior color="e5f6f7" />
				<outline color="000080" />
				<font color="000000" name="Arial" size="8" />
				<position>550 132 596 160</position>
				<barchart active="true" width="153" height="75" />
			</node>
			<node id="Modalidade_Terapeutica">
				<name>Modalidade_Terapeutica</name>
				<interior color="e5f6f7" />
				<outline color="000080" />
				<font color="000000" name="Arial" size="8" />
				<position>664 285 710 313</position>
				<barchart active="true" width="184" height="92" />
			</node>
			<node id="Tempo_Tratamento">
				<name>Tempo_Tratamento</name>
				<interior color="e5f6f7" />
				<outline color="000080" />
				<font color="000000" name="Arial" size="8" />
				<position>316 392 362 420</position>
				<barchart active="true" width="267" height="201" />
				<defcomment row="0" col="29">.\n</defcomment>
			</node>
		</genie>
	</extensions>
</smile>
